{
    "fc1.weight": [
        [
            0.09275951236486435,
            0.07048335671424866,
            0.11234255135059357,
            0.09842053800821304,
            0.061656221747398376,
            0.07107813656330109,
            0.20193128287792206,
            0.18452925980091095,
            -0.05330013111233711,
            0.04993432015180588,
            0.0691738873720169,
            0.024805471301078796,
            0.07845866680145264,
            0.1443575918674469,
            -0.02250760793685913,
            0.016654327511787415,
            -0.012074395082890987,
            -0.0944008007645607,
            0.04278536140918732,
            0.028762249276041985,
            0.004864383954554796,
            -0.06218201667070389,
            -0.05686424672603607,
            -0.06766538321971893,
            -0.04997469484806061,
            -0.05889620631933212,
            0.006275607738643885,
            -0.06827612221240997,
            0.09240840375423431,
            0.017795052379369736,
            -0.015038383193314075,
            -0.08770734071731567,
            0.015733707696199417,
            -0.057963982224464417,
            0.02801220677793026,
            0.024054599925875664,
            -0.11944568157196045,
            -0.14844845235347748,
            -0.11413825303316116,
            0.02808552049100399,
            0.06231292337179184,
            0.0006155402516014874,
            0.006822240073233843,
            -0.05018569901585579,
            0.030023416504263878,
            0.01431654766201973,
            -0.10417191684246063,
            0.050409670919179916,
            0.08943964540958405,
            0.13106031715869904,
            -0.0932048112154007,
            -0.09231609106063843,
            -0.17183737456798553,
            -0.08375503122806549,
            -0.052176158875226974,
            -0.0029455507174134254,
            0.16531716287136078,
            0.12840649485588074,
            -0.0615723617374897,
            -0.06194061040878296,
            -0.15420415997505188,
            0.07564496994018555,
            -0.03643210232257843,
            0.024109655991196632
        ],
        [
            -0.09153899550437927,
            -0.0951794907450676,
            -0.08749015629291534,
            -0.08914902806282043,
            -0.07263389229774475,
            -0.08625836670398712,
            -0.053920917212963104,
            -0.0849376916885376,
            -0.0824737548828125,
            -0.07296917587518692,
            -0.07270997762680054,
            -0.0358721949160099,
            -0.07823849469423294,
            -0.07801331579685211,
            -0.12074053287506104,
            -0.07234017550945282,
            -0.08124927431344986,
            -0.09935268759727478,
            -0.07699096202850342,
            -0.09708553552627563,
            -0.061130475252866745,
            -0.058966562151908875,
            0.030129343271255493,
            -0.0888245701789856,
            -0.09338660538196564,
            -0.004395069554448128,
            0.058011069893836975,
            0.14806810021400452,
            -0.08372056484222412,
            -0.062237635254859924,
            -0.023435372859239578,
            -0.11552169919013977,
            -0.07747107744216919,
            -0.0921497493982315,
            -0.08204298466444016,
            -0.10324554145336151,
            0.0057594627141952515,
            0.14142274856567383,
            -0.07383260875940323,
            -0.06801345944404602,
            -0.07049418240785599,
            0.008474522270262241,
            -0.11933469772338867,
            0.3015637993812561,
            0.20589306950569153,
            -0.09243978559970856,
            -0.08792287856340408,
            -0.07021191716194153,
            0.09126464277505875,
            -0.10131531953811646,
            0.22709795832633972,
            -0.06969791650772095,
            0.509170651435852,
            -0.11712342500686646,
            -0.06598382443189621,
            0.07231990247964859,
            0.07418176531791687,
            0.03135699778795242,
            -0.0769956111907959,
            0.41726136207580566,
            0.1850256323814392,
            0.09597313404083252,
            -0.08828741312026978,
            -0.07546214014291763
        ],
        [
            0.113251231610775,
            -0.057351745665073395,
            -0.08625505864620209,
            -0.050184763967990875,
            -0.08982335031032562,
            -0.10281425714492798,
            -0.11038292944431305,
            -0.106621652841568,
            0.16751164197921753,
            -0.05869308114051819,
            0.01035095751285553,
            -0.0336211696267128,
            0.10187268257141113,
            0.19668051600456238,
            -0.026103928685188293,
            0.17943145334720612,
            -0.05191444605588913,
            -0.060839489102363586,
            -0.02358129806816578,
            -0.04228634387254715,
            -0.10868324339389801,
            0.16734036803245544,
            0.05020850896835327,
            -0.06374813616275787,
            0.11194682866334915,
            -0.09848335385322571,
            -0.049288906157016754,
            -0.11946314573287964,
            0.0020693540573120117,
            -0.09721086919307709,
            0.000191214814549312,
            -0.0828024297952652,
            -0.09825658798217773,
            -0.0769289880990982,
            -0.1061246246099472,
            -0.12056867778301239,
            -0.07729312777519226,
            -0.010612652637064457,
            -0.07948184758424759,
            0.2648216784000397,
            -0.06438533961772919,
            -0.06409010291099548,
            -0.07910002022981644,
            -0.042255938053131104,
            -0.061255671083927155,
            -0.017888538539409637,
            -0.07083705067634583,
            0.15144549310207367,
            -0.018387392163276672,
            -0.0778089314699173,
            -0.1124834418296814,
            -0.048265859484672546,
            -0.06670036911964417,
            -0.05280212685465813,
            0.16601566970348358,
            0.3350785970687866,
            0.3004469573497772,
            0.014690236188471317,
            0.04746241867542267,
            -0.08544817566871643,
            0.08353589475154877,
            0.05091957747936249,
            0.09611934423446655,
            -0.12226276099681854
        ],
        [
            -0.11962967365980148,
            -0.15824221074581146,
            -0.14751654863357544,
            -0.1342182457447052,
            -0.13978855311870575,
            -0.09397459775209427,
            -0.12399698048830032,
            -0.12063348293304443,
            -0.1284365952014923,
            -0.14667144417762756,
            -0.15661561489105225,
            -0.09662884473800659,
            -0.1244342252612114,
            -0.05109778046607971,
            0.016923248767852783,
            -0.046730831265449524,
            -0.15910013020038605,
            -0.10065270215272903,
            0.000995785347186029,
            -0.1401890516281128,
            -0.12846016883850098,
            -0.027534233406186104,
            -0.10005563497543335,
            -0.15146379172801971,
            -0.13977326452732086,
            -0.03844459727406502,
            0.11165764182806015,
            -0.004313817247748375,
            0.09614664316177368,
            0.002504551550373435,
            0.10783068835735321,
            -0.14838476479053497,
            -0.08871190994977951,
            -0.1105537861585617,
            -0.015501067042350769,
            0.010574918240308762,
            0.2528132200241089,
            0.10896678268909454,
            0.002409090520814061,
            0.08898234367370605,
            0.08618739247322083,
            -0.13994170725345612,
            0.0417630709707737,
            -0.1366301029920578,
            0.140470489859581,
            0.2785080075263977,
            -0.14561426639556885,
            0.019435474649071693,
            0.09245745092630386,
            0.13019457459449768,
            -0.15449221432209015,
            -0.003005876438692212,
            0.4251672923564911,
            0.27793532609939575,
            0.06934237480163574,
            0.10165956616401672,
            -0.12774422764778137,
            -0.0648839920759201,
            0.31518247723579407,
            0.18768039345741272,
            0.19332803785800934,
            -0.006640776991844177,
            0.07835972309112549,
            0.04618583247065544
        ],
        [
            -0.051985591650009155,
            -0.06668321788311005,
            -0.03409573808312416,
            -0.05276670306921005,
            -0.05310336500406265,
            -0.06764304637908936,
            -0.0614345408976078,
            -0.03806338831782341,
            -0.09197309613227844,
            -0.043437618762254715,
            -0.07709603756666183,
            -0.03821203485131264,
            -0.03371317684650421,
            -0.06987210363149643,
            -0.02625177800655365,
            -0.12404237687587738,
            -0.026089349761605263,
            -0.07303818315267563,
            -0.037063781172037125,
            -0.01661970466375351,
            0.032222822308540344,
            -0.02475627325475216,
            0.04059186577796936,
            -0.06607440859079361,
            -0.07330656051635742,
            0.04741932451725006,
            0.13914477825164795,
            -0.11416839063167572,
            0.11665482819080353,
            -0.09292377531528473,
            -0.11387890577316284,
            0.13986676931381226,
            0.15785999596118927,
            0.15240822732448578,
            -0.11356927454471588,
            -0.11695359647274017,
            -0.07025183737277985,
            0.026456447318196297,
            -0.1041862815618515,
            -0.08997055888175964,
            0.2929896116256714,
            0.26677656173706055,
            0.10540875047445297,
            0.22707723081111908,
            -0.08088745176792145,
            0.10083560645580292,
            -0.041675664484500885,
            -0.07511918246746063,
            0.06580203026533127,
            -0.051207296550273895,
            -0.07594382762908936,
            0.11470729857683182,
            0.029069233685731888,
            -0.05111606419086456,
            -0.04472868889570236,
            -0.05203292891383171,
            -0.055011071264743805,
            -0.06707726418972015,
            -0.04470023885369301,
            -0.09223029017448425,
            -0.14121827483177185,
            0.029812946915626526,
            0.11038783192634583,
            -0.07723988592624664
        ],
        [
            0.20718178153038025,
            0.13468798995018005,
            0.10240780562162399,
            0.09793256968259811,
            0.08671552687883377,
            0.06179807707667351,
            0.1591055691242218,
            0.4154298007488251,
            0.18010486662387848,
            -0.1482536643743515,
            0.2179727703332901,
            0.27331987023353577,
            0.30211788415908813,
            0.1741609275341034,
            0.03602302074432373,
            0.20229259133338928,
            0.019134733825922012,
            -0.13818888366222382,
            0.05530034378170967,
            0.14593985676765442,
            0.08475549519062042,
            0.011336085386574268,
            0.11538378894329071,
            0.09592696279287338,
            0.10775651782751083,
            -0.15392081439495087,
            -0.10695341229438782,
            -0.12106962502002716,
            -0.033823415637016296,
            0.08915608376264572,
            -0.12738722562789917,
            0.0609402097761631,
            -0.12247371673583984,
            -0.12998628616333008,
            -0.13163284957408905,
            -0.11708273738622665,
            -0.05248970165848732,
            0.03801960498094559,
            -0.08449948579072952,
            -0.06451428681612015,
            -0.08946571499109268,
            -0.13936369121074677,
            -0.1323043256998062,
            -0.06569723784923553,
            0.05635717511177063,
            -0.15776504576206207,
            0.030951950699090958,
            -0.13464899361133575,
            -0.07217035442590714,
            -0.11232520639896393,
            -0.12892857193946838,
            -0.14021265506744385,
            0.05853695422410965,
            -0.1693655103445053,
            0.054882705211639404,
            -0.14704476296901703,
            -0.15493692457675934,
            -0.1371821165084839,
            -0.1487882137298584,
            -0.15364518761634827,
            -0.0002949964546132833,
            -0.009673014283180237,
            0.09553538262844086,
            -0.07183045148849487
        ],
        [
            0.4294472336769104,
            0.3150548040866852,
            -0.12149685621261597,
            0.18708433210849762,
            0.16843165457248688,
            -0.012531784363090992,
            0.24081137776374817,
            0.2045775055885315,
            0.39074280858039856,
            0.27493587136268616,
            0.27002525329589844,
            -0.10104726999998093,
            -0.13279636204242706,
            0.20805497467517853,
            -0.07542052865028381,
            0.14954012632369995,
            0.29552704095840454,
            -0.15155227482318878,
            0.21605902910232544,
            0.1773744523525238,
            0.17890292406082153,
            0.1119612380862236,
            -0.021706387400627136,
            0.1704273223876953,
            0.2532241940498352,
            0.09794849902391434,
            0.11525380611419678,
            -0.1370360404253006,
            -0.02038539946079254,
            -0.009544430300593376,
            0.10385376214981079,
            -0.12212222814559937,
            0.14517584443092346,
            -0.12543325126171112,
            0.039981599897146225,
            -0.14737917482852936,
            -0.12179827690124512,
            -0.12122875452041626,
            0.08986327052116394,
            0.03228996694087982,
            0.02060074917972088,
            -0.14098653197288513,
            -0.1174277663230896,
            -0.13800065219402313,
            -0.12212901562452316,
            -0.12486355751752853,
            -0.12087245285511017,
            0.024553224444389343,
            -0.11713944375514984,
            -0.12487778067588806,
            -0.1367177963256836,
            -0.12163672596216202,
            -0.1463771015405655,
            -0.12994936108589172,
            -0.12078123539686203,
            -0.14661695063114166,
            -0.03865188732743263,
            -0.13785110414028168,
            -0.130978062748909,
            -0.14933805167675018,
            0.13745981454849243,
            -0.010634750127792358,
            0.02830246090888977,
            -0.11553878337144852
        ],
        [
            0.3057670295238495,
            0.30469492077827454,
            -0.06807996332645416,
            -0.07425495982170105,
            -0.035338133573532104,
            0.12318742275238037,
            0.2845395803451538,
            -0.05171196162700653,
            -0.11655136942863464,
            -0.05438356101512909,
            -0.02624182403087616,
            0.1611994504928589,
            -0.03514900431036949,
            -0.05647413432598114,
            -0.07875338196754456,
            -0.0686887800693512,
            -0.09955273568630219,
            -0.03826821222901344,
            0.046570464968681335,
            0.3114269971847534,
            0.08469182997941971,
            0.13422845304012299,
            0.002060234546661377,
            -0.008875755593180656,
            -0.08963099122047424,
            -0.017650606110692024,
            -0.08727759122848511,
            -0.05361102521419525,
            -0.07810497283935547,
            -0.0006696308264508843,
            -0.046950533986091614,
            -0.01052049919962883,
            -0.014729853719472885,
            -0.08269327878952026,
            -0.022638777270913124,
            -0.014831406064331532,
            -0.01015322096645832,
            -0.001921294373460114,
            -0.10264299809932709,
            0.20476646721363068,
            0.06685248762369156,
            0.02545233815908432,
            -0.018941622227430344,
            -0.030353041365742683,
            -0.020445287227630615,
            -0.10581912100315094,
            -0.03163278475403786,
            0.11027514934539795,
            0.00047075116890482605,
            -0.1141413152217865,
            -0.027642667293548584,
            -0.024243436753749847,
            -0.05994310975074768,
            0.04840664938092232,
            0.1643354594707489,
            -0.01783306524157524,
            -0.09713320434093475,
            -0.029274508357048035,
            -0.025721540674567223,
            -0.037170879542827606,
            0.03192228451371193,
            -0.10863517224788666,
            -0.002922952175140381,
            0.2549004852771759
        ],
        [
            -0.02734041027724743,
            0.1122707724571228,
            -0.02536265179514885,
            -0.0484013669192791,
            -0.04066822677850723,
            0.06479031592607498,
            0.2143862396478653,
            0.15782858431339264,
            0.03757646307349205,
            -0.11201566457748413,
            -0.03246892988681793,
            0.10698676109313965,
            0.16073499619960785,
            0.1155015081167221,
            -0.06346410512924194,
            -0.03834714740514755,
            -0.05254529416561127,
            -0.05241159722208977,
            -0.09985038638114929,
            -0.03333531692624092,
            0.301902711391449,
            -0.04669801890850067,
            -0.0446784645318985,
            0.09806161373853683,
            -0.10787631571292877,
            -0.0725805014371872,
            -0.045146942138671875,
            -0.11667096614837646,
            -0.10555468499660492,
            -0.06471167504787445,
            -0.006764027755707502,
            -0.03674621134996414,
            -0.08607539534568787,
            -0.03050476871430874,
            -0.022869383916258812,
            -0.0916171669960022,
            -0.09215174615383148,
            0.10802072286605835,
            -0.05426451191306114,
            -0.03767252713441849,
            -0.049592986702919006,
            -0.056764841079711914,
            -0.03242304176092148,
            -0.050571709871292114,
            -0.03138488903641701,
            0.006987336557358503,
            -0.11767379939556122,
            -0.04662467539310455,
            -0.12117739021778107,
            -0.01797141507267952,
            -0.027328254655003548,
            0.025034820660948753,
            -0.06026265025138855,
            -0.08245870471000671,
            -0.030805109068751335,
            -0.08996835350990295,
            0.03462380915880203,
            -0.11429356038570404,
            0.011194197461009026,
            -0.08198001980781555,
            -0.21832355856895447,
            -0.055075064301490784,
            0.01807427406311035,
            -0.06220342218875885
        ],
        [
            -0.0009344667196273804,
            0.07865265011787415,
            -0.07868468761444092,
            -0.01173439621925354,
            -0.03751964867115021,
            0.06008414924144745,
            -0.07084271311759949,
            0.10584297776222229,
            -0.06607821583747864,
            0.08645187318325043,
            0.024098262190818787,
            -0.01663777232170105,
            -0.059095799922943115,
            -0.02007243037223816,
            0.05747736990451813,
            -0.11539000272750854,
            -0.08207432925701141,
            0.024625509977340698,
            0.11051109433174133,
            0.0007224828004837036,
            0.02857859432697296,
            -0.00290815532207489,
            0.02339167892932892,
            0.056161195039749146,
            -0.04797019064426422,
            -0.09762459993362427,
            -0.08034931123256683,
            -0.1012323796749115,
            0.08861620724201202,
            -0.09318552911281586,
            -0.05546720325946808,
            -0.07307344675064087,
            0.026534706354141235,
            -0.04622912406921387,
            0.011156082153320312,
            -0.01399393379688263,
            -0.049933552742004395,
            0.04510451853275299,
            0.08288837969303131,
            -0.045564666390419006,
            0.0747094452381134,
            -0.10187561810016632,
            0.0634050965309143,
            0.005336463451385498,
            -0.057437896728515625,
            0.10177041590213776,
            0.09844128787517548,
            0.019366919994354248,
            -0.047656625509262085,
            0.0013591945171356201,
            -0.05526527762413025,
            0.04512873291969299,
            -0.06464219093322754,
            0.11677055060863495,
            0.005361735820770264,
            -0.016736268997192383,
            0.023199990391731262,
            -0.04304307699203491,
            0.047051072120666504,
            0.098179891705513,
            -0.11469373106956482,
            0.058754295110702515,
            -0.029087290167808533,
            -0.03994792699813843
        ],
        [
            0.2935628890991211,
            0.2822784185409546,
            -0.0494379885494709,
            -0.001851317472755909,
            0.1963852494955063,
            0.2424032837152481,
            -0.11187098175287247,
            0.21446560323238373,
            0.30352985858917236,
            0.13236358761787415,
            -0.0992271676659584,
            -0.057698797434568405,
            0.08297721296548843,
            0.10319994390010834,
            0.09176358580589294,
            0.18928878009319305,
            0.14647936820983887,
            0.09305483102798462,
            -0.05235286429524422,
            -0.06723833829164505,
            -0.11717896163463593,
            0.1251744031906128,
            0.0449514240026474,
            0.10001777857542038,
            -0.06996174901723862,
            0.00815518293529749,
            -0.08632159978151321,
            -0.02854558825492859,
            -0.035754382610321045,
            0.008948467671871185,
            0.13617607951164246,
            -0.046418145298957825,
            -0.07700179517269135,
            -0.009211414493620396,
            0.005793177522718906,
            -0.06576956808567047,
            -0.08508259057998657,
            -0.0631539598107338,
            -0.10312896966934204,
            -0.05856235325336456,
            0.00295287580229342,
            -0.09599699825048447,
            -0.10011143982410431,
            -0.08290760219097137,
            -0.07508622854948044,
            -0.10751234740018845,
            -0.11490564048290253,
            -0.08537320792675018,
            -0.10359364748001099,
            0.0012333269696682692,
            -0.10008754581212997,
            -0.10339664667844772,
            -0.1624758541584015,
            -0.14267051219940186,
            -0.11451661586761475,
            0.0455615408718586,
            -0.007285508792847395,
            -0.005828481633216143,
            -0.06008882075548172,
            -0.11768247187137604,
            -0.08254905045032501,
            0.0240238755941391,
            -0.05472695827484131,
            -0.09959320724010468
        ],
        [
            0.2529633939266205,
            -0.040668729692697525,
            0.32217177748680115,
            0.18081580102443695,
            -0.08620206266641617,
            0.323239266872406,
            0.1999676376581192,
            0.2629120647907257,
            0.04602259770035744,
            0.23663073778152466,
            0.06895985454320908,
            0.14678944647312164,
            0.1634002923965454,
            0.19848915934562683,
            -0.11456406116485596,
            -0.03516159951686859,
            -0.0255927462130785,
            -0.11841751635074615,
            -0.11665959656238556,
            -0.04299639165401459,
            -0.06587153673171997,
            -0.07480845600366592,
            -0.016446039080619812,
            -0.03895105794072151,
            -0.1063188910484314,
            0.0017463916447013617,
            -0.047016795724630356,
            -0.05585087463259697,
            0.06378889083862305,
            -0.09467202425003052,
            0.018622269853949547,
            -0.10830289125442505,
            0.04878431186079979,
            -0.046816978603601456,
            -0.08247426152229309,
            -0.04949628934264183,
            -0.021701570600271225,
            -0.07741235196590424,
            -0.010586569085717201,
            -0.03542154282331467,
            -0.09738586843013763,
            -0.01372603140771389,
            -0.057232245802879333,
            -0.0359627790749073,
            -0.03980821743607521,
            -0.05566412955522537,
            -0.022791659459471703,
            0.05119730904698372,
            0.06578661501407623,
            -0.0714692771434784,
            -0.061398696154356,
            -0.060744017362594604,
            -0.0610545314848423,
            -0.07611294090747833,
            -0.03280670940876007,
            -0.02001168392598629,
            0.06416637450456619,
            -0.04097466170787811,
            -0.0662340521812439,
            -0.05571024864912033,
            -0.10844773054122925,
            0.018299877643585205,
            0.0037425756454467773,
            -0.11602146923542023
        ],
        [
            0.02667909488081932,
            -0.06552854180335999,
            -0.07951472699642181,
            0.15643522143363953,
            0.06068560853600502,
            -0.07579347491264343,
            -0.07871867716312408,
            -0.06279689073562622,
            -0.0826873928308487,
            0.03690611571073532,
            0.05974552780389786,
            -0.022426901385188103,
            0.21310216188430786,
            0.035294823348522186,
            -0.04823732376098633,
            -0.07801691442728043,
            0.07549342513084412,
            -0.11595851182937622,
            -0.07003240287303925,
            0.06831929087638855,
            -0.08807508647441864,
            -0.014060758985579014,
            -0.07278196513652802,
            -0.06754060089588165,
            -0.010335121303796768,
            -0.10024826228618622,
            0.07814253866672516,
            0.24811413884162903,
            0.060420528054237366,
            -0.09261249005794525,
            0.10256954282522202,
            0.22245760262012482,
            -0.1197158545255661,
            0.08152898401021957,
            0.23121444880962372,
            0.17157693207263947,
            0.17449967563152313,
            -0.09755422174930573,
            -0.08169485628604889,
            -0.057136185467243195,
            -0.10599707067012787,
            -0.11913435161113739,
            0.03618483990430832,
            -0.021736320108175278,
            -0.09077980369329453,
            0.08475146442651749,
            -0.002824972616508603,
            -0.06925707310438156,
            -0.06760536134243011,
            -0.058195266872644424,
            -0.06980343163013458,
            -0.02021549455821514,
            0.059793319553136826,
            -0.07236054539680481,
            -0.09013646095991135,
            -0.07002534717321396,
            -0.0686536431312561,
            -0.09191028028726578,
            -0.08792869001626968,
            -0.06095707416534424,
            -0.21206870675086975,
            0.1060558557510376,
            0.09391017258167267,
            -0.08223257213830948
        ],
        [
            -0.05085086077451706,
            -0.1026802808046341,
            -0.08308696001768112,
            -0.06919148564338684,
            -0.07649648934602737,
            0.08655215799808502,
            -0.06197046861052513,
            -0.13141615688800812,
            0.014747950248420238,
            -0.07278703153133392,
            -0.06938324123620987,
            -0.14050064980983734,
            0.06556233763694763,
            -0.05413352698087692,
            -0.028558120131492615,
            -0.07411383837461472,
            -0.08371859788894653,
            -0.058583687990903854,
            -0.12998393177986145,
            -0.06090730056166649,
            0.049705520272254944,
            -0.0677652508020401,
            0.0333942174911499,
            -0.06633231043815613,
            -0.02168368734419346,
            0.20495644211769104,
            0.17193631827831268,
            0.14320524036884308,
            -0.00935007631778717,
            -0.04970148950815201,
            0.02253720909357071,
            -0.06624428927898407,
            0.10510043799877167,
            0.13125120103359222,
            0.14135102927684784,
            -0.13628093898296356,
            0.17849479615688324,
            -0.03325847163796425,
            -0.0888504832983017,
            -0.09650996327400208,
            0.2741098701953888,
            -0.09620031714439392,
            0.26475033164024353,
            0.33009234070777893,
            -0.07041436433792114,
            -0.14661504328250885,
            -0.11439236998558044,
            -0.08827689290046692,
            -0.0005943841533735394,
            0.12366731464862823,
            0.26007047295570374,
            0.05165506526827812,
            0.11184937506914139,
            -0.16559511423110962,
            -0.0575745552778244,
            -0.1207398995757103,
            0.030706774443387985,
            -0.09388692677021027,
            0.10710304230451584,
            0.018411435186862946,
            -0.10789810866117477,
            -0.09320983290672302,
            -0.11711499094963074,
            -0.1302194744348526
        ],
        [
            -0.06566230952739716,
            0.004651322960853577,
            0.14920993149280548,
            0.011896095238626003,
            -0.050917670130729675,
            -0.048995863646268845,
            0.06304912269115448,
            -0.0697629302740097,
            -0.008312583900988102,
            -0.061719249933958054,
            -0.10114067792892456,
            0.00718827685341239,
            -0.014274122193455696,
            -0.006520282011479139,
            0.0557774156332016,
            -0.054407864809036255,
            -0.05538291111588478,
            0.0006496483692899346,
            -0.08426138758659363,
            -0.12131111323833466,
            -0.002414788817986846,
            0.006271993275731802,
            0.05754469335079193,
            0.004472971428185701,
            0.03130543604493141,
            0.0027676336467266083,
            0.035871487110853195,
            -0.06561756879091263,
            -0.12482550740242004,
            0.005175045691430569,
            -0.050918810069561005,
            -0.09920459240674973,
            0.18851657211780548,
            0.20954494178295135,
            0.007124835625290871,
            -0.054268140345811844,
            -0.044236619025468826,
            0.03918464109301567,
            -0.020794130861759186,
            -0.11193136870861053,
            0.27448970079421997,
            0.033820100128650665,
            -0.005182273685932159,
            -0.08153536170721054,
            -0.03840765729546547,
            -0.06308618932962418,
            -0.10426732152700424,
            -0.09425870329141617,
            -0.006575927138328552,
            0.048833344131708145,
            -0.11881788820028305,
            -0.12643460929393768,
            -0.1170988529920578,
            -0.1394364982843399,
            -0.14080028235912323,
            0.013313082046806812,
            0.3406384587287903,
            0.36692336201667786,
            -0.07552722096443176,
            -0.04956286773085594,
            -0.11035187542438507,
            -0.08917964994907379,
            -0.050432443618774414,
            -0.014450686983764172
        ],
        [
            -0.11512523144483566,
            -0.02063208818435669,
            0.07054901868104935,
            0.21189484000205994,
            0.022287946194410324,
            -0.13366751372814178,
            -0.15301460027694702,
            -0.13773894309997559,
            -0.005062034819275141,
            -0.0559401661157608,
            0.1322166621685028,
            -0.044593922793865204,
            0.12584194540977478,
            -0.026515264064073563,
            0.020215660333633423,
            -0.03407125920057297,
            0.015264964662492275,
            -0.13086317479610443,
            0.09650908410549164,
            0.02240298129618168,
            0.19040605425834656,
            -0.06462377309799194,
            0.008816227316856384,
            -0.138457790017128,
            -0.028236601501703262,
            -0.10040155798196793,
            -0.055195439606904984,
            0.07651548832654953,
            -0.12024007737636566,
            0.04440043866634369,
            0.07540129125118256,
            0.14933280646800995,
            -0.11435481160879135,
            -0.10675983875989914,
            -0.0898233950138092,
            0.09388405829668045,
            0.2595534920692444,
            -0.06967242807149887,
            -0.05265778303146362,
            -0.10472214967012405,
            -0.09206065535545349,
            -0.1261831521987915,
            -0.06119360029697418,
            -0.0260420311242342,
            0.19772298634052277,
            0.08502133935689926,
            -0.07760223001241684,
            -0.02037806063890457,
            -0.07509614527225494,
            -0.07140567153692245,
            -0.05507413670420647,
            0.04199037328362465,
            0.051347825676202774,
            -0.15782080590724945,
            -0.020469680428504944,
            -0.08167664706707001,
            -0.1153806746006012,
            -0.10012640058994293,
            -0.11550455540418625,
            -0.11480399966239929,
            -0.1440432369709015,
            0.0941891223192215,
            -0.11491896212100983,
            -0.12191242724657059
        ],
        [
            -0.03428833186626434,
            0.04655791074037552,
            -0.017346378415822983,
            -0.028501255437731743,
            -0.04084961861371994,
            -0.06485097110271454,
            -0.15530328452587128,
            0.10726308077573776,
            0.056443583220243454,
            0.03059885837137699,
            -0.055542100220918655,
            0.012714729644358158,
            -0.00472600432112813,
            0.024857688695192337,
            0.07886481285095215,
            -0.07289471477270126,
            -0.03911856189370155,
            -0.0865120142698288,
            -0.05515376850962639,
            0.0491902194917202,
            -0.05296642333269119,
            -0.01049583125859499,
            0.05564558506011963,
            0.011169296689331532,
            0.0736568421125412,
            0.06669382005929947,
            -0.044533610343933105,
            -0.02659928984940052,
            -0.01478758454322815,
            -0.046825166791677475,
            0.045231349766254425,
            -0.059021785855293274,
            0.06850174069404602,
            0.03590977191925049,
            -0.14905492961406708,
            -0.021811217069625854,
            -0.04346802458167076,
            -0.04919041693210602,
            -0.09788826107978821,
            -0.08083747327327728,
            0.0937814936041832,
            -0.07272379845380783,
            -0.03942737355828285,
            0.093991219997406,
            -0.1123368889093399,
            0.014211757108569145,
            -0.08110040426254272,
            0.0035135969519615173,
            -0.0023894309997558594,
            -0.06245899572968483,
            0.027664178982377052,
            0.07492512464523315,
            -0.05887020751833916,
            -0.17742426693439484,
            -0.04000856354832649,
            -0.11452465504407883,
            -0.06370329111814499,
            -0.09804274886846542,
            -0.03623136505484581,
            -0.10786610096693039,
            -0.10518798232078552,
            -0.09264656901359558,
            -0.07230889797210693,
            -0.03559145703911781
        ],
        [
            0.18987475335597992,
            -0.020553026348352432,
            0.05019674822688103,
            0.10028810799121857,
            0.041505660861730576,
            0.015445999801158905,
            0.05658213049173355,
            0.23630391061306,
            0.07099853456020355,
            0.0682440996170044,
            0.02844027243554592,
            0.030174415558576584,
            0.18202313780784607,
            0.004348310641944408,
            0.058423206210136414,
            0.0763542577624321,
            0.01670141890645027,
            -0.07225165516138077,
            0.02430395781993866,
            -0.04302122816443443,
            0.1781618893146515,
            0.20931962132453918,
            -0.0753052830696106,
            0.05773875489830971,
            0.08654343336820602,
            -0.14438281953334808,
            -0.15783074498176575,
            -0.13705779612064362,
            -0.06879106163978577,
            0.024519378319382668,
            -0.06474675983190536,
            -0.0174245685338974,
            -0.1195446103811264,
            -0.14048638939857483,
            -0.13225723803043365,
            -0.1092066839337349,
            -0.11957356333732605,
            0.12982633709907532,
            -0.07718126475811005,
            0.19954648613929749,
            -0.09562043845653534,
            -0.14111703634262085,
            -0.15794941782951355,
            -0.15519483387470245,
            -0.1270941197872162,
            -0.14667071402072906,
            0.1790364533662796,
            0.04218564182519913,
            0.011711999773979187,
            -0.10177715122699738,
            -0.1659666895866394,
            -0.1572359800338745,
            -0.20563195645809174,
            -0.07189863175153732,
            0.21364887058734894,
            0.06235083192586899,
            -0.07834912091493607,
            -0.13847750425338745,
            -0.15579482913017273,
            -0.16853798925876617,
            -0.14907754957675934,
            0.03400923311710358,
            -0.06280229985713959,
            0.22021488845348358
        ],
        [
            -0.0889967530965805,
            -0.08128580451011658,
            0.0003040581941604614,
            -0.10902383923530579,
            0.058540940284729004,
            0.021347075700759888,
            0.002400323748588562,
            -0.08500584959983826,
            -0.06133538484573364,
            0.08262477815151215,
            -0.07956390082836151,
            0.046450018882751465,
            -0.03635941445827484,
            -0.10855448246002197,
            -0.032585859298706055,
            -0.06920848786830902,
            -0.017114177346229553,
            0.0598616898059845,
            0.08589154481887817,
            0.0648249089717865,
            -0.0670049786567688,
            -0.03929266333580017,
            -0.021038323640823364,
            -0.03301893174648285,
            -0.021084412932395935,
            0.019046306610107422,
            0.0757555216550827,
            -0.101936936378479,
            -0.11613959074020386,
            0.008004516363143921,
            0.10875694453716278,
            -0.019984453916549683,
            -0.10957282781600952,
            -0.023531004786491394,
            0.0109473317861557,
            -0.01396186649799347,
            0.053877681493759155,
            -0.08255934715270996,
            0.0022539347410202026,
            -0.04975709319114685,
            0.09871384501457214,
            0.08344055712223053,
            0.0035019367933273315,
            0.08787217736244202,
            0.025086134672164917,
            -0.011859223246574402,
            -0.09149967133998871,
            -0.06336112320423126,
            -0.11683328449726105,
            -0.01688438653945923,
            -0.013635367155075073,
            -0.11288370192050934,
            0.10191969573497772,
            -0.01961396634578705,
            0.09663328528404236,
            -0.009455978870391846,
            -0.08242006599903107,
            -0.06129734218120575,
            0.009448394179344177,
            0.05537146329879761,
            0.01834319531917572,
            -0.015305697917938232,
            0.09563402831554413,
            -0.045244067907333374
        ],
        [
            0.025832317769527435,
            -0.03526768460869789,
            -0.03378361836075783,
            -0.07084563374519348,
            -0.05466939136385918,
            -0.032160013914108276,
            -0.04445115849375725,
            0.061842143535614014,
            -0.030032863840460777,
            -0.031637970358133316,
            -0.07372798770666122,
            -0.01477725524455309,
            -0.004644800443202257,
            -0.097988560795784,
            -0.08549949526786804,
            -0.03473161906003952,
            -0.0763593390583992,
            -0.06599842756986618,
            -0.06929273903369904,
            0.140314981341362,
            0.16500525176525116,
            0.014249279163777828,
            -0.07205580174922943,
            0.0824410542845726,
            -0.11328758299350739,
            -0.10427553951740265,
            0.10228601843118668,
            -0.04235032573342323,
            -0.11396244168281555,
            0.10249710083007812,
            -0.10487028956413269,
            -0.015767965465784073,
            -0.015829898416996002,
            -0.11002051085233688,
            -0.11622070521116257,
            -0.06481721252202988,
            -0.07220037281513214,
            -0.09124493598937988,
            -0.13267900049686432,
            -0.06759650260210037,
            0.20814959704875946,
            -0.008520492352545261,
            -0.14445199072360992,
            -0.15039485692977905,
            -0.10455116629600525,
            -0.05316830053925514,
            -0.12830683588981628,
            -0.0849667638540268,
            0.005605033598840237,
            -0.10503736138343811,
            -0.15522846579551697,
            -0.14288435876369476,
            -0.12878134846687317,
            -0.051737379282712936,
            0.026606552302837372,
            -0.05470386892557144,
            0.18963691592216492,
            0.2469337433576584,
            -0.09962082654237747,
            -0.03633049875497818,
            -0.07188096642494202,
            -0.005108430981636047,
            -0.03457622230052948,
            -0.017355892807245255
        ],
        [
            0.07407432794570923,
            0.059609927237033844,
            0.1755286306142807,
            0.0703507661819458,
            -0.12606780230998993,
            -0.11538373678922653,
            0.10816209763288498,
            0.05252736806869507,
            0.05979099124670029,
            0.006575038190931082,
            -0.07155241072177887,
            -0.03448818251490593,
            0.04729223996400833,
            -0.04236952215433121,
            -0.12076640129089355,
            -0.1052238717675209,
            -0.020956693217158318,
            -0.1206534132361412,
            0.007782348897308111,
            0.13696639239788055,
            -0.03411606326699257,
            -0.05378437787294388,
            -0.03183026611804962,
            0.0005659923772327602,
            -0.11360612511634827,
            0.049419280141592026,
            -0.0702936053276062,
            -0.08707038313150406,
            0.11274616420269012,
            0.04637422040104866,
            0.01830524206161499,
            0.07931075245141983,
            -0.016283471137285233,
            0.07006266713142395,
            0.13716618716716766,
            -0.12679873406887054,
            0.14723734557628632,
            -0.05071747675538063,
            0.11370879411697388,
            0.02754208631813526,
            -0.0342576801776886,
            -0.05728133022785187,
            0.0855550616979599,
            0.028427787125110626,
            -0.13075785338878632,
            -0.044699423015117645,
            0.02268053963780403,
            -0.010701299645006657,
            0.07826073467731476,
            0.06487690657377243,
            -0.012895717285573483,
            -0.12776191532611847,
            0.05593084543943405,
            -0.1322125941514969,
            -0.013985303230583668,
            -0.09283263981342316,
            -0.08275679498910904,
            -0.053852397948503494,
            -0.11676649004220963,
            -0.06052716076374054,
            -0.14812467992305756,
            0.06733229756355286,
            -0.00996468961238861,
            -0.1191946491599083
        ],
        [
            -0.09807924926280975,
            -0.11397765576839447,
            -0.03227318823337555,
            -0.01690642535686493,
            -0.003365287557244301,
            0.05967672914266586,
            0.006408238783478737,
            -0.02048507332801819,
            -0.06786276400089264,
            0.2689884603023529,
            0.20969565212726593,
            -0.05570721626281738,
            0.23791305720806122,
            0.0445743203163147,
            -0.030709967017173767,
            -0.10154816508293152,
            -0.06553609669208527,
            0.2738328278064728,
            0.05507348105311394,
            0.024157214909791946,
            -0.014488697052001953,
            -0.0016116048209369183,
            0.09846362471580505,
            -0.001407108036801219,
            -0.026906730607151985,
            0.2435084730386734,
            -0.02494145929813385,
            0.0028198957443237305,
            -0.01825699210166931,
            0.2748415470123291,
            -0.08392001688480377,
            -0.03328715264797211,
            -0.03639018535614014,
            -0.06924593448638916,
            -0.06818066537380219,
            -0.09034445881843567,
            0.01933513581752777,
            -0.04004871845245361,
            -0.11458830535411835,
            0.006834477186203003,
            0.01387179084122181,
            -0.021772906184196472,
            0.018886025995016098,
            0.002055427525192499,
            -0.10333338379859924,
            0.00956315454095602,
            -0.1217125803232193,
            0.020102981477975845,
            0.028468983247876167,
            -0.0007361911120824516,
            -0.014112547039985657,
            0.046981699764728546,
            -0.009488466195762157,
            -0.02449103072285652,
            0.036927785724401474,
            0.06471752375364304,
            -0.08818455040454865,
            -0.08611513674259186,
            -0.0034407200291752815,
            0.012233955785632133,
            0.009857963770627975,
            -0.12201797962188721,
            0.005988374352455139,
            -0.015215829014778137
        ],
        [
            -0.09785324335098267,
            -0.0837724581360817,
            -0.11910195648670197,
            -0.09562984108924866,
            -0.0804998055100441,
            -0.07094711810350418,
            -0.031638938933610916,
            -0.0734337791800499,
            -0.018292266875505447,
            -0.02179422602057457,
            -0.09514281153678894,
            -0.06379161030054092,
            -0.05777810141444206,
            -0.07522497326135635,
            -0.01672607660293579,
            -0.09150221198797226,
            -0.04731220752000809,
            -0.08830919861793518,
            -0.09360159933567047,
            -0.0465310700237751,
            -0.0642046183347702,
            -0.046279437839984894,
            -0.036375030875205994,
            -0.08681770414113998,
            -0.0939551368355751,
            0.08856143802404404,
            -0.08309867978096008,
            -0.020732315257191658,
            -0.04043285548686981,
            -0.04433045908808708,
            -0.09108643233776093,
            -0.08564664423465729,
            -0.04518146440386772,
            -0.09333252906799316,
            0.2659298777580261,
            0.12760747969150543,
            -0.062428370118141174,
            0.1520763635635376,
            -0.04993192106485367,
            0.10282616317272186,
            -0.10169762372970581,
            0.2392905354499817,
            0.1727094054222107,
            0.06265267729759216,
            -0.010694758035242558,
            -0.09262018650770187,
            -0.01041619572788477,
            -0.05352209135890007,
            -0.029871806502342224,
            0.24735799431800842,
            -0.017752187326550484,
            -0.08604799211025238,
            -0.09432225674390793,
            -0.09544171392917633,
            -0.07264026254415512,
            -0.08809320628643036,
            0.2154221087694168,
            0.2563052475452423,
            0.18303120136260986,
            -0.08110341429710388,
            0.03136586397886276,
            0.1218768060207367,
            -0.09214065968990326,
            0.23744142055511475
        ],
        [
            0.10342732071876526,
            0.00593133270740509,
            -0.09794400632381439,
            -0.04868556559085846,
            0.004606202244758606,
            -0.06680411100387573,
            0.030147716403007507,
            -0.08231069147586823,
            0.09781783819198608,
            0.06340348720550537,
            0.05448707938194275,
            0.0008231252431869507,
            0.05770386755466461,
            0.05548150837421417,
            0.010488256812095642,
            0.01327832043170929,
            -0.10931266844272614,
            0.011341303586959839,
            0.04009276628494263,
            -0.07331688702106476,
            0.015850886702537537,
            0.12452616542577744,
            0.08718226850032806,
            0.06575484573841095,
            0.08867484331130981,
            0.053237274289131165,
            -0.051558494567871094,
            0.029759004712104797,
            0.12280324101448059,
            -0.01854267716407776,
            0.008162230253219604,
            0.10804013907909393,
            -0.11444829404354095,
            -0.025603294372558594,
            -0.023446157574653625,
            -0.08938197791576385,
            -0.0033854246139526367,
            0.04204517602920532,
            -0.10116930305957794,
            -0.03964774310588837,
            -0.056867122650146484,
            0.08108507096767426,
            0.0034275949001312256,
            -0.0646585077047348,
            -0.11556890606880188,
            -0.1121864765882492,
            0.06954498589038849,
            -0.07730385661125183,
            -0.047506868839263916,
            -0.019724205136299133,
            -0.08741362392902374,
            0.040819600224494934,
            0.08834366500377655,
            -0.09591656923294067,
            0.0017180442810058594,
            0.0211927592754364,
            -0.10933975875377655,
            -0.09551677107810974,
            0.0995405912399292,
            0.023966431617736816,
            0.006212212145328522,
            0.007016494870185852,
            -0.07462240755558014,
            0.06002427637577057
        ],
        [
            -0.08379873633384705,
            0.03691291809082031,
            0.10828371345996857,
            -0.08253028988838196,
            0.07013154029846191,
            0.08837056159973145,
            -0.10724514722824097,
            -0.11346752941608429,
            -0.04892003536224365,
            -0.04975748062133789,
            -0.03615732491016388,
            0.006253302097320557,
            -0.07246996462345123,
            -0.018765345215797424,
            -0.01898108422756195,
            -0.07028152048587799,
            -0.08421559631824493,
            0.05003166198730469,
            -0.06786736845970154,
            0.08976240456104279,
            -0.08649137616157532,
            0.03360547125339508,
            -0.05013388395309448,
            0.07904574275016785,
            -0.04809275269508362,
            -0.09805594384670258,
            0.05637913942337036,
            0.11109361052513123,
            0.10002057254314423,
            -0.07450568675994873,
            0.06629496812820435,
            -0.09370158612728119,
            -0.014433443546295166,
            -0.07479563355445862,
            -0.019708171486854553,
            0.06095075607299805,
            -0.03774897754192352,
            0.08394187688827515,
            -0.04196558892726898,
            0.0515032559633255,
            0.04769925773143768,
            -0.10735638439655304,
            0.03450940549373627,
            0.10517184436321259,
            0.003239244222640991,
            0.04097835719585419,
            0.02996760606765747,
            0.03997993469238281,
            -0.036780521273612976,
            -0.11397989094257355,
            0.0018626302480697632,
            0.09317478537559509,
            0.001145288348197937,
            0.08478666841983795,
            -0.07371614873409271,
            -0.07269379496574402,
            0.10659949481487274,
            0.11899662017822266,
            0.10967698693275452,
            -0.021921277046203613,
            -0.03907129168510437,
            -0.06515845656394958,
            -0.08256514370441437,
            0.0724673867225647
        ],
        [
            0.11222164332866669,
            0.0781184732913971,
            -0.0411033034324646,
            0.0843980461359024,
            -0.10639116168022156,
            -0.0430322140455246,
            0.009419456124305725,
            -0.06743453443050385,
            0.008343175053596497,
            -0.10483761131763458,
            0.05424230173230171,
            0.05933797359466553,
            0.06420338153839111,
            -0.02071276307106018,
            0.09949459135532379,
            -0.008841648697853088,
            0.006897032260894775,
            -0.12007416784763336,
            0.06927908957004547,
            -0.07646822929382324,
            0.05994829535484314,
            0.07109986990690231,
            -0.11634145677089691,
            -0.10842850804328918,
            0.0657319575548172,
            0.08599338680505753,
            -0.033745840191841125,
            -0.03961449861526489,
            -0.0935274064540863,
            0.08512663841247559,
            0.06966954469680786,
            0.05754399299621582,
            -0.1140647679567337,
            -0.12050275504589081,
            0.11870445311069489,
            0.0282851904630661,
            0.09099234640598297,
            0.06483244895935059,
            0.04371829330921173,
            -0.09455139935016632,
            -0.06897582113742828,
            -0.04658617079257965,
            -0.01597374677658081,
            -0.05195388197898865,
            -0.06940419971942902,
            -0.10366715490818024,
            0.0375228077173233,
            -0.05586297810077667,
            -0.05913826823234558,
            -0.06669504940509796,
            0.027992382645606995,
            0.09393966197967529,
            -0.11980420351028442,
            -0.0160713791847229,
            0.06595762819051743,
            -0.11122161149978638,
            -0.03230912983417511,
            -0.07723335921764374,
            0.06456246972084045,
            0.0013102293014526367,
            -0.019730662927031517,
            0.024097159504890442,
            0.09824497997760773,
            0.042341843247413635
        ],
        [
            0.050041332840919495,
            -0.11291271448135376,
            -0.06989175081253052,
            0.004037544596940279,
            0.12496132403612137,
            -0.08511094748973846,
            -0.08011578023433685,
            0.21831369400024414,
            -0.06739921867847443,
            0.12938690185546875,
            -0.06925041973590851,
            0.20597797632217407,
            0.19340121746063232,
            0.1939806193113327,
            -0.11938437819480896,
            0.04881802573800087,
            -0.11816425621509552,
            0.07879701256752014,
            -0.017618104815483093,
            -0.03588666394352913,
            0.10711201280355453,
            0.15263083577156067,
            -0.08674533665180206,
            -0.08010327070951462,
            0.09705758094787598,
            -0.10593169927597046,
            0.1629512906074524,
            -0.021454056724905968,
            0.06796693801879883,
            0.2912168800830841,
            0.2837091386318207,
            -0.04114363342523575,
            -0.05720522254705429,
            -0.09099043905735016,
            0.08190834522247314,
            -0.07153064012527466,
            -0.030024144798517227,
            -0.02236349508166313,
            -0.11071139574050903,
            -0.05457906424999237,
            0.1645391881465912,
            0.09886375814676285,
            -0.0679742619395256,
            -0.06516917049884796,
            -0.04447559267282486,
            -0.06618061661720276,
            -0.0541045144200325,
            -0.08252350240945816,
            0.10097109526395798,
            -0.0017377578187733889,
            -0.03717875853180885,
            -0.06089840829372406,
            -0.046247851103544235,
            -0.06603225320577621,
            -0.02437981218099594,
            -0.06765444576740265,
            0.005263637751340866,
            -0.03192780166864395,
            -0.06308020651340485,
            -0.052604638040065765,
            0.02289806492626667,
            0.03928332030773163,
            -0.02993631362915039,
            -0.09984706342220306
        ],
        [
            -0.05645405128598213,
            0.15313805639743805,
            -0.10873264819383621,
            -0.10866007953882217,
            0.14873361587524414,
            0.42661553621292114,
            -0.11749470233917236,
            0.060846514999866486,
            0.16594885289669037,
            0.21641509234905243,
            -0.09439650177955627,
            0.0609864704310894,
            -0.03401409089565277,
            -0.003627108410000801,
            0.0943944901227951,
            0.16679935157299042,
            -0.04212455824017525,
            0.10458482056856155,
            -0.13835863769054413,
            -0.12312550842761993,
            0.12085631489753723,
            0.06413008272647858,
            0.12089046835899353,
            -0.06811776012182236,
            -0.11368187516927719,
            0.055173445492982864,
            -0.06513764709234238,
            -0.11540241539478302,
            0.09238332509994507,
            0.05946774408221245,
            -0.11525426805019379,
            -0.13094176352024078,
            0.09419900178909302,
            -0.09277645498514175,
            -0.14540810883045197,
            -0.12920106947422028,
            -0.1251656413078308,
            -0.1110658124089241,
            -0.13919956982135773,
            -0.11185649037361145,
            0.13162200152873993,
            -0.10162834823131561,
            -0.11790818721055984,
            -0.16073788702487946,
            -0.10174690186977386,
            -0.14215172827243805,
            -0.05395480990409851,
            -0.1278928518295288,
            -0.052886009216308594,
            -0.1120426282286644,
            -0.15022516250610352,
            -0.13802525401115417,
            -0.19118383526802063,
            -0.13970932364463806,
            0.004279104061424732,
            0.2363993525505066,
            0.2184806913137436,
            0.14800459146499634,
            -0.09503176808357239,
            -0.15419721603393555,
            -0.1351580172777176,
            0.07078459858894348,
            0.04281631112098694,
            0.2677195072174072
        ],
        [
            0.05077134072780609,
            0.08470544219017029,
            -0.03830505162477493,
            0.03973698988556862,
            0.0631953775882721,
            0.32941940426826477,
            0.11839515715837479,
            0.21553963422775269,
            0.0656220093369484,
            0.0647021159529686,
            0.004659268073737621,
            0.18727225065231323,
            0.09250248968601227,
            0.08395832777023315,
            0.07619413733482361,
            0.04956778138875961,
            -0.0019388055661693215,
            0.052442774176597595,
            -0.009586961939930916,
            -0.01946805976331234,
            0.1598169207572937,
            0.06819520890712738,
            -0.04245494306087494,
            0.09220246970653534,
            -0.10038860887289047,
            -0.11844736337661743,
            -0.09403463453054428,
            -0.09942907094955444,
            0.1109335869550705,
            0.1964280903339386,
            -0.10267268866300583,
            0.01997445710003376,
            0.06264650821685791,
            -0.11514249444007874,
            -0.04296033829450607,
            -0.12600795924663544,
            -0.07489728182554245,
            0.03642739728093147,
            -0.14746463298797607,
            -0.10599356889724731,
            -0.036877017468214035,
            -0.09037015587091446,
            -0.14407823979854584,
            -0.15746143460273743,
            -0.14008104801177979,
            0.06547234207391739,
            -0.0970873162150383,
            -0.03689964860677719,
            0.021294279024004936,
            0.01651339791715145,
            -0.10781291127204895,
            -0.07836604118347168,
            -0.20412950217723846,
            -0.021173804998397827,
            -0.1389143168926239,
            -0.03924630582332611,
            0.02523508295416832,
            -0.15236666798591614,
            -0.16130058467388153,
            -0.06147240474820137,
            -0.35591229796409607,
            -0.012697383761405945,
            0.03388923406600952,
            -0.047500379383563995
        ],
        [
            0.2677404284477234,
            0.013219643384218216,
            0.1668832004070282,
            0.20248593389987946,
            0.24654796719551086,
            0.06657619774341583,
            0.2080511599779129,
            0.18910636007785797,
            0.11130008101463318,
            0.0035579565446823835,
            0.1240430399775505,
            0.14519193768501282,
            0.061027929186820984,
            0.11845968663692474,
            0.06965288519859314,
            -0.1233479231595993,
            -0.010395695455372334,
            0.0066292742267251015,
            0.001034799963235855,
            0.03124147653579712,
            0.13898278772830963,
            0.029391588643193245,
            0.024605602025985718,
            -0.09609970450401306,
            0.020455140620470047,
            -0.08463139832019806,
            -0.039712198078632355,
            -0.11507993191480637,
            0.04216518998146057,
            0.0920344740152359,
            0.12657791376113892,
            -0.02965191937983036,
            0.016521422192454338,
            -0.004973278380930424,
            -0.09627614170312881,
            -0.1403910517692566,
            -0.09598924964666367,
            -0.1068030297756195,
            -0.002010331256315112,
            -0.05777830630540848,
            0.13398899137973785,
            -0.09274584800004959,
            -0.0019858006853610277,
            -0.10874606668949127,
            -0.07978511601686478,
            -0.12167718261480331,
            -0.12450491636991501,
            0.0098496712744236,
            -0.07635822892189026,
            -0.09919793903827667,
            -0.10858619958162308,
            -0.11489227414131165,
            -0.15336516499519348,
            -0.15603415668010712,
            -0.13261832296848297,
            0.004703947808593512,
            -0.0903589129447937,
            -0.08695117384195328,
            -0.11726582050323486,
            -0.10008129477500916,
            -0.2460453063249588,
            -0.015757039189338684,
            0.07189474999904633,
            -0.04559310898184776
        ],
        [
            0.10009372234344482,
            0.09632451832294464,
            0.0695798397064209,
            -0.05206793546676636,
            0.06209777295589447,
            -0.06181754171848297,
            0.06388475000858307,
            0.035967111587524414,
            -0.07759149372577667,
            0.012632668018341064,
            -0.11848913133144379,
            -0.026470601558685303,
            -0.1083831787109375,
            0.055815041065216064,
            -0.0039064884185791016,
            -0.012355566024780273,
            -0.04724545776844025,
            0.08006958663463593,
            -0.029389575123786926,
            -0.11212047934532166,
            -0.09384529292583466,
            -0.05091202259063721,
            0.05703379213809967,
            0.11740034818649292,
            0.023182570934295654,
            -0.02771185338497162,
            0.12298952043056488,
            -0.05174398422241211,
            -0.10882396996021271,
            0.004846826195716858,
            -0.015155091881752014,
            -0.021410778164863586,
            -0.08085137605667114,
            0.03344935178756714,
            -0.013196885585784912,
            -0.05463522672653198,
            0.10633771121501923,
            -0.0421028733253479,
            -0.0903150886297226,
            -0.07633595168590546,
            0.04471579194068909,
            -0.11741505563259125,
            0.07016421854496002,
            0.014414936304092407,
            0.1023731380701065,
            0.0598137229681015,
            0.08532316982746124,
            -0.06473477184772491,
            -0.018957972526550293,
            0.0660741776227951,
            0.007234349846839905,
            -0.05863316357135773,
            0.04608507454395294,
            0.11421109735965729,
            0.04408681392669678,
            0.04941511154174805,
            -0.027555689215660095,
            0.023954257369041443,
            -0.009313568472862244,
            -0.042234063148498535,
            -0.011064067482948303,
            -0.09557904303073883,
            0.047487884759902954,
            0.11487573385238647
        ],
        [
            0.17384521663188934,
            0.19467441737651825,
            0.28225791454315186,
            0.00460659759119153,
            0.1541755497455597,
            0.043695107102394104,
            0.1339874416589737,
            0.24099482595920563,
            0.2664397060871124,
            0.21513520181179047,
            0.08531353622674942,
            0.21333110332489014,
            0.08151351660490036,
            0.08498779684305191,
            -0.035174623131752014,
            0.1756260097026825,
            0.115056611597538,
            0.07811511307954788,
            0.01686902716755867,
            0.10215646773576736,
            0.026842327788472176,
            0.0507555715739727,
            0.10926258563995361,
            -0.12792296707630157,
            0.17248456180095673,
            0.061623092740774155,
            0.03630123287439346,
            -0.09879444539546967,
            -0.12115435302257538,
            0.07466927915811539,
            0.002120622666552663,
            0.06429336220026016,
            0.1573418378829956,
            0.031223926693201065,
            -0.12026949226856232,
            -0.0279379989951849,
            -0.11225073039531708,
            -0.07689148932695389,
            -0.12253522872924805,
            -0.06955798715353012,
            0.07593857496976852,
            0.06455209106206894,
            -0.07353132963180542,
            -0.10346932709217072,
            -0.12430039048194885,
            -0.08984039723873138,
            -0.11914370208978653,
            -0.1470409780740738,
            0.0497957319021225,
            -0.08022357523441315,
            -0.10734158009290695,
            -0.12833361327648163,
            -0.16020609438419342,
            -0.1586703658103943,
            -0.13685981929302216,
            -0.0870666578412056,
            -0.11215366423130035,
            -0.10918021202087402,
            -0.11804050207138062,
            -0.10478594899177551,
            -0.015170745551586151,
            0.0022812187671661377,
            -0.07994124293327332,
            0.07703448832035065
        ],
        [
            -0.07820755988359451,
            0.10000622272491455,
            -0.011832751333713531,
            0.08684952557086945,
            0.019427448511123657,
            0.09975937753915787,
            -0.11268486082553864,
            0.16091887652873993,
            -0.10208075493574142,
            0.08977259695529938,
            0.1064646765589714,
            -0.03771500289440155,
            0.1535307914018631,
            0.10651065409183502,
            0.007635742425918579,
            -0.014833243563771248,
            0.003125474089756608,
            0.07731465250253677,
            0.07187457382678986,
            0.18178381025791168,
            0.06955631822347641,
            0.03679148480296135,
            -0.05904482305049896,
            -0.03191855922341347,
            -0.155270516872406,
            0.11379694938659668,
            -0.05672983452677727,
            -0.09840801358222961,
            0.06616637110710144,
            0.07265014946460724,
            -0.03040601685643196,
            -0.02882302924990654,
            0.0015811563935130835,
            0.006580778397619724,
            -0.1194152683019638,
            -0.03758816421031952,
            0.02655208110809326,
            -0.04083529859781265,
            0.1536632478237152,
            0.10512449592351913,
            0.0811881422996521,
            0.0809164047241211,
            -0.09107838571071625,
            -0.10776737332344055,
            -0.10468855500221252,
            0.022533541545271873,
            -0.03758412227034569,
            -0.004287990275770426,
            -0.0033632367849349976,
            -0.10961844027042389,
            -0.04182012379169464,
            -0.0501512810587883,
            -0.04934478923678398,
            -0.10836708545684814,
            -0.005035122390836477,
            0.010401374660432339,
            0.1416873335838318,
            0.014373448677361012,
            -0.11662335693836212,
            -0.05734172463417053,
            -0.15497083961963654,
            0.11506043374538422,
            0.012022703886032104,
            0.16757559776306152
        ],
        [
            -0.028972670435905457,
            0.028351731598377228,
            0.00046682910760864615,
            -0.03217856585979462,
            0.019227446988224983,
            0.06743127107620239,
            -0.04801192879676819,
            -0.003348633646965027,
            -0.027966102585196495,
            0.009960116818547249,
            -0.09380722045898438,
            0.030756190419197083,
            0.06483318656682968,
            0.023973003029823303,
            -0.016669273376464844,
            0.08063207566738129,
            0.006650188937783241,
            -0.10226167738437653,
            0.02781834825873375,
            0.08306355774402618,
            0.05275245010852814,
            -0.05572742223739624,
            -0.10998882353305817,
            -0.09957954287528992,
            -0.10930904746055603,
            -0.010733475908637047,
            0.05052521452307701,
            0.018727168440818787,
            0.047527655959129333,
            -0.009188100695610046,
            -0.107762411236763,
            -0.0004604607820510864,
            -0.037130847573280334,
            -0.12241286039352417,
            0.08063270896673203,
            0.01911863684654236,
            -0.11109931766986847,
            0.0053882598876953125,
            -0.01364542543888092,
            0.013920634984970093,
            0.007009619846940041,
            0.039861731231212616,
            -0.11537891626358032,
            -0.02407224476337433,
            -0.03150387108325958,
            0.033970169723033905,
            -0.028068751096725464,
            -0.12088029086589813,
            -0.053198397159576416,
            -0.035044267773628235,
            -0.04895047843456268,
            0.003992095589637756,
            -0.013210520148277283,
            -0.0067154765129089355,
            -0.08303751051425934,
            -0.0049141645431518555,
            0.05576176941394806,
            -0.09970352053642273,
            -0.07006052136421204,
            -0.036187544465065,
            -0.025433141738176346,
            -0.07386068999767303,
            -0.012483984231948853,
            0.019869893789291382
        ],
        [
            -0.1783781498670578,
            -0.18337908387184143,
            -0.12784293293952942,
            -0.038248367607593536,
            -0.021340468898415565,
            -0.16224196553230286,
            -0.16741161048412323,
            -0.058425724506378174,
            -0.15584604442119598,
            -0.16781176626682281,
            -0.06968158483505249,
            -0.1531747579574585,
            -0.15916907787322998,
            -0.15303222835063934,
            0.05742494761943817,
            -0.0007616583025082946,
            -0.1689227968454361,
            -0.0577969066798687,
            -0.08857560902833939,
            -0.17067332565784454,
            -0.050083257257938385,
            0.021772822365164757,
            0.0037720054388046265,
            -0.025907719507813454,
            -0.16320961713790894,
            -0.16597197949886322,
            0.05284441262483597,
            -0.003630975726991892,
            -0.008284375071525574,
            0.026659701019525528,
            0.08755029737949371,
            -0.17903663218021393,
            -0.1528194546699524,
            -0.16671282052993774,
            0.018313342705368996,
            0.07779417932033539,
            0.32217836380004883,
            0.09403018653392792,
            0.06782389432191849,
            0.07984334230422974,
            -0.02153320610523224,
            -0.14756934344768524,
            0.13801047205924988,
            0.3291868567466736,
            0.15539053082466125,
            0.15788862109184265,
            0.11753067374229431,
            0.0866430252790451,
            0.12812353670597076,
            0.17905212938785553,
            0.26090165972709656,
            0.3059276342391968,
            0.3991295099258423,
            0.3872813582420349,
            0.05835650488734245,
            -0.002723659621551633,
            0.06203095614910126,
            0.16996338963508606,
            0.008635376580059528,
            0.0231893640011549,
            0.09896920621395111,
            0.04496300220489502,
            0.04660019278526306,
            -0.00968395546078682
        ],
        [
            0.056371793150901794,
            -0.15086136758327484,
            -0.06129007041454315,
            0.23931999504566193,
            0.11662790924310684,
            -0.03972885385155678,
            0.15088556706905365,
            0.24192729592323303,
            0.20331650972366333,
            -0.018448220565915108,
            0.29912662506103516,
            0.12486676871776581,
            0.24411866068840027,
            0.14198295772075653,
            -0.028088003396987915,
            0.1479198932647705,
            0.10687869042158127,
            -0.1163826659321785,
            0.20278821885585785,
            0.25826597213745117,
            0.12926706671714783,
            0.11483654379844666,
            0.0666315108537674,
            0.23899012804031372,
            -0.04477742686867714,
            -0.04129433259367943,
            -0.04937300086021423,
            -0.010074636898934841,
            0.106983482837677,
            0.09080510586500168,
            -0.07616450637578964,
            0.1865270882844925,
            -0.05074305459856987,
            -0.1167374849319458,
            -0.06668233871459961,
            -0.08400532603263855,
            -0.10750584304332733,
            0.020322395488619804,
            0.019480079412460327,
            -0.06588957458734512,
            -0.13169701397418976,
            -0.10807961225509644,
            -0.08771070837974548,
            -0.05855554714798927,
            -0.06458711624145508,
            -0.08701170235872269,
            -0.047852523624897,
            -0.10415133833885193,
            -0.06555575132369995,
            -0.013712408021092415,
            -0.11960059404373169,
            -0.12465669214725494,
            -0.08439242839813232,
            -0.11641235649585724,
            -0.12485887855291367,
            -0.15015646815299988,
            -0.01766938343644142,
            -0.020091677084565163,
            -0.11652863025665283,
            -0.13082483410835266,
            -0.13445623219013214,
            -0.00879642367362976,
            -0.07159456610679626,
            -0.12413535267114639
        ],
        [
            0.05726398527622223,
            0.10941654443740845,
            -0.07340218126773834,
            -0.09445886313915253,
            -0.0943710207939148,
            0.11494655907154083,
            -0.07080669701099396,
            -0.09221790730953217,
            0.09175677597522736,
            -0.06390364468097687,
            -0.11599145829677582,
            -0.11130261421203613,
            -0.07201699912548065,
            -0.10493209958076477,
            -0.12387633323669434,
            -0.0905555784702301,
            0.029167085886001587,
            0.011798322200775146,
            0.03668637573719025,
            0.054191410541534424,
            -0.08226101100444794,
            0.08781698346138,
            -0.10173512995243073,
            0.07834205031394958,
            0.09033437818288803,
            0.0547151118516922,
            0.07236000895500183,
            0.08960717916488647,
            0.0399194210767746,
            0.011986196041107178,
            0.11858221143484116,
            -0.04862523078918457,
            0.08555704355239868,
            -0.09044308960437775,
            0.10359857976436615,
            0.06683747470378876,
            0.052626729011535645,
            -0.09815044701099396,
            0.10814623534679413,
            0.08357712626457214,
            0.04114845395088196,
            0.09217298030853271,
            0.013990312814712524,
            0.046070173382759094,
            -0.025628268718719482,
            -0.09509722888469696,
            0.08124417066574097,
            0.09396559745073318,
            -0.08065181970596313,
            0.09893925487995148,
            0.08508770167827606,
            -0.008868545293807983,
            0.080153688788414,
            0.02152252197265625,
            -0.10760875046253204,
            -0.08421783149242401,
            -0.0010620653629302979,
            -0.003209814429283142,
            0.028307437896728516,
            -0.12346215546131134,
            -0.006899582222104073,
            0.08254177868366241,
            -0.10187935829162598,
            0.018865510821342468
        ],
        [
            -0.07753772288560867,
            -0.10815466195344925,
            -0.08073905110359192,
            -0.08990242332220078,
            -0.06287751346826553,
            -0.0767950713634491,
            -0.12155747413635254,
            -0.07085909694433212,
            -0.09881765395402908,
            -0.11472855508327484,
            -0.08605378866195679,
            -0.08647118508815765,
            -0.06700726598501205,
            -0.06426630169153214,
            0.027312830090522766,
            -0.05453009530901909,
            -0.06672060489654541,
            -0.09278494119644165,
            0.08946477621793747,
            -0.11716081947088242,
            0.0019537038169801235,
            -0.07316000759601593,
            0.046066105365753174,
            0.06964174658060074,
            -0.09048131108283997,
            -0.09348990023136139,
            -0.09992393851280212,
            -0.08442053198814392,
            0.07160930335521698,
            -0.08161832392215729,
            0.06532762944698334,
            0.1640133261680603,
            0.02428712137043476,
            -0.10795814543962479,
            0.12400856614112854,
            0.13864262402057648,
            -0.1034640222787857,
            0.09098143130540848,
            0.09289265424013138,
            -0.10475432872772217,
            0.042710497975349426,
            0.15726825594902039,
            -0.08969302475452423,
            -0.08905723690986633,
            0.45289409160614014,
            0.2437283843755722,
            0.16430504620075226,
            -0.05802774801850319,
            -0.03927016258239746,
            -0.08998386561870575,
            -0.10791446268558502,
            0.40841734409332275,
            0.43303778767585754,
            0.002769713057205081,
            -0.0880560427904129,
            -0.062363460659980774,
            -0.08897655457258224,
            0.025887466967105865,
            0.15856978297233582,
            -0.12120473384857178,
            0.23506049811840057,
            0.06180800497531891,
            0.06430502235889435,
            0.00834512710571289
        ],
        [
            -0.05830423906445503,
            0.014813879504799843,
            0.0019801019225269556,
            0.005141918547451496,
            -0.0309978686273098,
            -0.05630277097225189,
            0.13242655992507935,
            0.1177448257803917,
            0.018578244373202324,
            -0.04735518991947174,
            0.22774392366409302,
            0.0268001239746809,
            0.022008435800671577,
            0.008251450024545193,
            -0.03984789550304413,
            -0.07163973152637482,
            -0.10287109762430191,
            -0.14366720616817474,
            0.10722003132104874,
            -0.028945326805114746,
            0.018824439495801926,
            -0.12511032819747925,
            -0.0433812290430069,
            0.022426068782806396,
            0.22488686442375183,
            -0.0005085463635623455,
            -0.05289534106850624,
            -0.09923002868890762,
            0.12133912742137909,
            -0.09968297183513641,
            -0.07599439471960068,
            -0.10018672049045563,
            0.034198880195617676,
            -0.006628094241023064,
            -0.034796878695487976,
            0.023500138893723488,
            -0.020155446603894234,
            -0.09021858125925064,
            0.16401687264442444,
            -0.14466792345046997,
            -0.0832536593079567,
            0.15709415078163147,
            -0.17656159400939941,
            -0.07250808924436569,
            -0.09874461591243744,
            -0.12141883373260498,
            -0.016333870589733124,
            -0.043474093079566956,
            0.05614187568426132,
            -0.03141551464796066,
            -0.08316288888454437,
            -0.03338070586323738,
            -0.07485165446996689,
            -0.18334974348545074,
            -0.09324414283037186,
            -0.09033863991498947,
            -0.020494181662797928,
            -0.02964024990797043,
            -0.14411099255084991,
            -0.11477174609899521,
            -0.1718410849571228,
            -0.05620233714580536,
            0.04648445546627045,
            -0.16181936860084534
        ],
        [
            -0.14113932847976685,
            -0.08366947621107101,
            -0.1083112359046936,
            -0.13493122160434723,
            -0.11741527915000916,
            -0.07046151906251907,
            -0.1352422684431076,
            -0.11251892894506454,
            0.05572189763188362,
            -0.13183589279651642,
            -0.11511394381523132,
            -0.04304827004671097,
            -0.10315399616956711,
            -0.13544730842113495,
            -0.11579848825931549,
            -0.06534241139888763,
            0.06391441822052002,
            0.051757652312517166,
            -0.07436881959438324,
            -0.14921057224273682,
            -0.12369221448898315,
            -0.08488734811544418,
            -0.11306425929069519,
            -0.12361690402030945,
            0.03448617830872536,
            0.053177446126937866,
            -0.11538528650999069,
            0.06855541467666626,
            0.12349988520145416,
            -0.11163994669914246,
            -0.1280345916748047,
            0.041402317583560944,
            0.13845941424369812,
            0.039785273373126984,
            0.09852419793605804,
            0.1909359097480774,
            -0.06447136402130127,
            0.2835676372051239,
            -0.13627715408802032,
            -0.15055201947689056,
            -0.13737402856349945,
            -0.05335879325866699,
            -0.14996831119060516,
            0.07207436114549637,
            0.04025626182556152,
            -0.051890820264816284,
            -0.11703036725521088,
            -0.12991417944431305,
            0.15977546572685242,
            0.2784086763858795,
            0.24603700637817383,
            -0.16374190151691437,
            -0.14963430166244507,
            -0.10899942368268967,
            -0.1405888944864273,
            -0.07020775973796844,
            0.390198677778244,
            0.2766360938549042,
            0.2895714342594147,
            0.1076730489730835,
            0.08870428055524826,
            -0.1082560122013092,
            -0.03243371844291687,
            -0.11160234361886978
        ],
        [
            -0.07960978150367737,
            0.05068795382976532,
            0.049006976187229156,
            -0.09371711313724518,
            0.10262568295001984,
            0.10704958438873291,
            -0.0017367005348205566,
            -0.00967317819595337,
            -0.12160420417785645,
            -0.09146755933761597,
            -0.12093038856983185,
            0.071067214012146,
            0.039522603154182434,
            -0.016010016202926636,
            0.019130393862724304,
            0.02554142475128174,
            -0.059503182768821716,
            0.0762253850698471,
            -0.11139650642871857,
            -0.04003247618675232,
            -0.03385855257511139,
            0.09323137998580933,
            -0.0238046795129776,
            0.04167546331882477,
            0.006225124001502991,
            0.07436460256576538,
            0.07927581667900085,
            0.10055084526538849,
            0.013478577136993408,
            0.08832686394453049,
            -0.08995890617370605,
            -0.04217325150966644,
            0.08060481399297714,
            -0.033651307225227356,
            -0.026728227734565735,
            -0.0015326142311096191,
            -0.02751193940639496,
            0.09951560199260712,
            -0.04933883249759674,
            -0.03141094744205475,
            -0.030110850930213928,
            0.008086040616035461,
            -0.02042616903781891,
            0.11197727918624878,
            0.04484984278678894,
            -0.0581003874540329,
            0.012823089957237244,
            0.08621247112751007,
            -0.039218902587890625,
            0.024332642555236816,
            -0.06398569047451019,
            0.08147723972797394,
            0.007872194051742554,
            0.05764581263065338,
            0.0967334657907486,
            0.06458613276481628,
            0.014134705066680908,
            0.04664325714111328,
            -0.04272697865962982,
            -0.06502929329872131,
            0.0685841515660286,
            0.013384252786636353,
            0.06426520645618439,
            -0.0392000675201416
        ],
        [
            -0.08389140665531158,
            -0.09307774901390076,
            0.2256697714328766,
            -0.11657862365245819,
            0.3179091215133667,
            0.23395366966724396,
            0.11462784558534622,
            -0.07954719662666321,
            0.1787521094083786,
            -0.07041388750076294,
            0.15104049444198608,
            0.25534453988075256,
            0.3173583447933197,
            -0.10673603415489197,
            0.09073030948638916,
            -0.020265590399503708,
            0.08742056041955948,
            -0.0948113277554512,
            -0.09405601024627686,
            0.3314075469970703,
            0.08739890903234482,
            0.16746293008327484,
            -0.041427403688430786,
            0.11340731382369995,
            0.14025403559207916,
            -0.08285987377166748,
            -0.03676808252930641,
            0.11331866681575775,
            0.05041894316673279,
            -0.07869583368301392,
            0.004161215852946043,
            -0.061261728405952454,
            -0.09162330627441406,
            -0.0680420845746994,
            -0.005141308531165123,
            -0.09126797318458557,
            -0.06675083935260773,
            -0.12275722622871399,
            0.11057133972644806,
            0.11214832961559296,
            0.09970041364431381,
            -0.10748395323753357,
            -0.06992091238498688,
            -0.06934754550457001,
            -0.06181385740637779,
            -0.02808729186654091,
            -0.061420127749443054,
            -0.07954242080450058,
            -0.06259636580944061,
            -0.10981760919094086,
            -0.0702589750289917,
            -0.078837551176548,
            -0.07314926385879517,
            -0.0979597419500351,
            0.09133942425251007,
            -0.08099290728569031,
            -0.08513598144054413,
            -0.08108324557542801,
            -0.08925836533308029,
            -0.07630974799394608,
            -0.10945221036672592,
            0.09195445477962494,
            -0.08921098709106445,
            0.07389466464519501
        ],
        [
            -0.044369738548994064,
            -0.05351324751973152,
            -0.046170614659786224,
            -0.0579361729323864,
            0.06328947097063065,
            -0.10251814126968384,
            -0.03913683071732521,
            -0.056427016854286194,
            -0.11620887368917465,
            -0.0599643848836422,
            -0.09438665211200714,
            -0.09722837805747986,
            -0.022090468555688858,
            -0.10586738586425781,
            0.061558425426483154,
            -0.051733896136283875,
            0.08724615722894669,
            0.12124340981245041,
            -0.04662196338176727,
            0.09752782434225082,
            -0.04567830264568329,
            -0.05290668085217476,
            -0.03733302652835846,
            -0.08799803256988525,
            0.2326149344444275,
            0.13393086194992065,
            -0.05747333541512489,
            -0.06628791987895966,
            0.07307286560535431,
            -0.10543745756149292,
            -0.11975644528865814,
            -0.06355364620685577,
            0.22841571271419525,
            -0.1086311787366867,
            -0.089911088347435,
            -0.050836436450481415,
            -0.061243750154972076,
            -0.007400958798825741,
            -0.0489267036318779,
            0.13096092641353607,
            0.3731907308101654,
            0.12138789892196655,
            -0.08296062052249908,
            -0.08595409989356995,
            -0.0767396092414856,
            -0.05525704473257065,
            -0.06620097905397415,
            -0.045287128537893295,
            -0.08699464797973633,
            -0.11632399260997772,
            -0.04404431954026222,
            -0.04324199631810188,
            -0.11434371769428253,
            -0.08005962520837784,
            -0.012268755584955215,
            -0.03148914873600006,
            0.24394491314888,
            -0.043993622064590454,
            -0.013379310257732868,
            -0.0578262023627758,
            -0.022968921810388565,
            -0.034306690096855164,
            0.04714888334274292,
            0.3029910922050476
        ],
        [
            -0.10651886463165283,
            -0.12580545246601105,
            -0.05615852028131485,
            -0.0698956549167633,
            -0.03856326639652252,
            -0.07961684465408325,
            -0.05093076080083847,
            -0.051565513014793396,
            -0.10749989002943039,
            0.07100092619657516,
            0.12545588612556458,
            -0.06334035843610764,
            -0.03627849370241165,
            0.06379032880067825,
            0.012159138917922974,
            -0.03092305362224579,
            0.010845871642231941,
            0.23660142719745636,
            0.1092233657836914,
            -0.022649141028523445,
            -0.008953955955803394,
            -0.03252822533249855,
            0.06234361231327057,
            -0.037898510694503784,
            -0.12061208486557007,
            0.24312861263751984,
            0.12662914395332336,
            -0.07297248393297195,
            0.08234396576881409,
            -0.05787625536322594,
            -0.06043556332588196,
            -0.09369456768035889,
            -0.13359622657299042,
            0.19005753099918365,
            -0.046781908720731735,
            0.18418700993061066,
            0.017565011978149414,
            -0.004888568073511124,
            0.13938526809215546,
            -0.04725345969200134,
            -0.027882574126124382,
            0.2971835434436798,
            0.05282659828662872,
            0.0016273414948955178,
            -0.0358055979013443,
            0.029022710397839546,
            -0.06155426800251007,
            -0.10565847158432007,
            0.08641942590475082,
            -0.10319171845912933,
            -0.07618866115808487,
            -0.05588135868310928,
            -0.051212165504693985,
            -0.08488425612449646,
            -0.05980334058403969,
            -0.08404660224914551,
            -0.07503611594438553,
            -0.056498244404792786,
            -0.03469546139240265,
            -0.07899120450019836,
            0.00926839467138052,
            -0.09065902233123779,
            0.06803686916828156,
            -0.11266501247882843
        ],
        [
            0.013573641888797283,
            -0.018806103616952896,
            -0.08661718666553497,
            -0.06272121518850327,
            -0.053349148482084274,
            -0.00942947156727314,
            -0.1051405742764473,
            0.009118570946156979,
            -0.01100792083889246,
            -0.01377622876316309,
            -0.0634913519024849,
            0.04226783663034439,
            -0.0009573677671141922,
            -0.08126848936080933,
            -0.1067577451467514,
            -0.09044890850782394,
            0.05029881373047829,
            -0.025361983105540276,
            -0.05581589788198471,
            -0.05446450412273407,
            -0.04590453580021858,
            0.03633483126759529,
            -0.05348256230354309,
            -0.05690494924783707,
            0.046718496829271317,
            0.013830087147653103,
            0.17788241803646088,
            0.19272762537002563,
            0.04502172768115997,
            -0.017305301502346992,
            -0.009455389343202114,
            0.2318350225687027,
            0.008690198883414268,
            -0.07048452645540237,
            0.05606160685420036,
            -0.04120156168937683,
            -0.09890177100896835,
            -0.06561587005853653,
            -0.04973066598176956,
            -0.12102825939655304,
            0.23261277377605438,
            -0.003615450579673052,
            -0.03226596862077713,
            -0.16057340800762177,
            -0.05727175995707512,
            0.028480153530836105,
            -0.06503879278898239,
            0.05580370873212814,
            -0.004631293471902609,
            -0.07517388463020325,
            0.05882681533694267,
            -0.11634504795074463,
            -0.020185085013508797,
            -0.08357173949480057,
            -0.0911119133234024,
            -0.013307016342878342,
            0.10792605578899384,
            0.05870198830962181,
            -0.020346924662590027,
            0.06015174090862274,
            -0.01755272038280964,
            -0.01267997920513153,
            -0.06564930081367493,
            0.006293708458542824
        ],
        [
            0.11425288021564484,
            -0.1497671753168106,
            0.07939868420362473,
            0.1784321665763855,
            0.03190060704946518,
            0.0531136691570282,
            0.17757993936538696,
            0.12085229903459549,
            0.2317022681236267,
            0.16320180892944336,
            -0.1242322325706482,
            0.09236989915370941,
            0.28368744254112244,
            0.19192759692668915,
            -0.08591030538082123,
            0.20053021609783173,
            0.02660173550248146,
            0.034229863435029984,
            0.07800326496362686,
            0.16281598806381226,
            0.21489255130290985,
            0.07104130834341049,
            0.11567121744155884,
            0.1177767664194107,
            0.10463959723711014,
            0.036165136843919754,
            -0.11989453434944153,
            -0.11446760594844818,
            0.0393618643283844,
            0.03227567672729492,
            -0.05785258486866951,
            0.06834153085947037,
            0.10347497463226318,
            -0.14738617837429047,
            -0.09533219784498215,
            -0.1511201411485672,
            -0.12627702951431274,
            -0.0827370285987854,
            -0.09407202899456024,
            -0.12451142817735672,
            -0.039015647023916245,
            -0.1080779880285263,
            -0.14683274924755096,
            -0.11985363811254501,
            -0.11308234930038452,
            -0.1196562647819519,
            -0.13855920732021332,
            0.0007797239813953638,
            0.02410947158932686,
            -0.09353359043598175,
            -0.11849348247051239,
            -0.13956499099731445,
            -0.14572522044181824,
            -0.14296245574951172,
            0.00853144470602274,
            -0.13362377882003784,
            -0.09016797691583633,
            -0.1283348798751831,
            -0.12214744836091995,
            -0.12119163572788239,
